{
  "input_sequences": [],
  "inputs": [
    {
      "name": "input",
      "variables": [
        {
          "name": "seed_chi2PerDoF",
          "offset": -1.640568336346315,
          "scale": 0.974822062787818
        },
        {
          "name": "seed_p",
          "offset": -9.003331795929764,
          "scale": 1.01528773011697
        },
        {
          "name": "seed_pt",
          "offset": -7.096047517131157,
          "scale": 2.175854786268049
        },
        {
          "name": "seed_x",
          "offset": 6.694118621597481,
          "scale": 0.001424639371506
        },
        {
          "name": "seed_y",
          "offset": -2.294639912651397,
          "scale": 0.001868877076397
        },
        {
          "name": "seed_tx",
          "offset": 0.006393834643134,
          "scale": 3.531427423486022
        },
        {
          "name": "seed_ty",
          "offset": -0.00029933106538,
          "scale": 14.498204168032636
        },
        {
          "name": "seed_r",
          "offset": -705.4816542920508,
          "scale": 0.001885230669461
        },
        {
          "name": "seed_angle",
          "offset": -0.002342610191977,
          "scale": 1.319436083442086
        },
        {
          "name": "seed_pseudorapidity",
          "offset": -0.21884202034218,
          "scale": 5.735393657268749
        }
      ]
    }
  ],
  "layers": [
    {
      "activation": "rectified",
      "architecture": "dense",
      "bias": [
        -3.4099197387695312,
        -0.8034383654594421,
        -0.03224732726812363,
        -4.053272247314453,
        -0.8437859416007996,
        -1.7758170366287231,
        -0.6992023587226868,
        -2.005366086959839,
        -0.99181067943573,
        -1.8605083227157593,
        -1.3671879768371582,
        -2.9482674598693848,
        -1.1429731845855713,
        -3.855888843536377,
        -1.3951408863067627,
        0.5931783318519592,
        -4.124050617218018,
        -2.86478328704834,
        -1.682936191558838,
        -2.402799606323242,
        -0.8592939376831055,
        -1.7470623254776,
        -0.8028680086135864,
        0.6328338384628296,
        0.022850846871733665,
        -0.0796230360865593,
        0.31388795375823975,
        -1.8521549701690674,
        -1.7651225328445435,
        -0.8691285252571106,
        -0.38418737053871155,
        0.7177315354347229,
        -1.1599888801574707,
        -0.01367834210395813,
        -1.6043691635131836,
        -3.1228058338165283,
        -0.20156075060367584,
        -0.6969138979911804,
        -2.0669448375701904,
        -1.876509428024292,
        -4.045987606048584,
        -1.115512490272522,
        -0.04938838630914688,
        0.01314625609666109,
        -1.1602071523666382,
        -3.945188045501709,
        -0.5390139222145081,
        -0.8060597777366638,
        0.620039701461792,
        0.5941454172134399,
        -3.9262866973876953,
        -0.2327900379896164,
        -4.58767032623291,
        -0.9768590331077576,
        -1.3175227642059326,
        -2.0662968158721924,
        -4.6099629402160645,
        -2.096031427383423,
        -0.41747936606407166,
        -0.8542925715446472,
        -1.5391651391983032,
        -2.2918872833251953,
        -1.1934484243392944,
        -1.185580849647522
      ],
      "weights": [
        0.04584121331572533,
        -1.1631191968917847,
        -1.4845452308654785,
        0.339182049036026,
        0.47985997796058655,
        -0.2187768518924713,
        0.42075636982917786,
        0.1286306232213974,
        -0.0008440343663096428,
        0.3990105092525482,
        0.011723021976649761,
        0.8022148609161377,
        -1.1546281576156616,
        0.15013055503368378,
        -0.6531423926353455,
        -0.10937905311584473,
        1.2014858722686768,
        -0.2467532753944397,
        -0.12364473193883896,
        -0.6570273637771606,
        0.005702056922018528,
        0.1957045942544937,
        -0.19859330356121063,
        0.17428572475910187,
        -2.518465757369995,
        -0.1912812739610672,
        -1.8794219493865967,
        0.5020505785942078,
        0.06823521852493286,
        0.48122891783714294,
        -0.032601259648799896,
        -0.1960717737674713,
        -0.0035933724138885736,
        1.9688769578933716,
        -0.43707141280174255,
        -1.797234296798706,
        -0.056291576474905014,
        0.4428456425666809,
        0.1327911615371704,
        0.3173101246356964,
        0.01669508032500744,
        -0.38431376218795776,
        0.47787797451019287,
        -1.6422364711761475,
        -1.071795105934143,
        1.5423856973648071,
        0.5313860177993774,
        -1.7438740730285645,
        0.5284218788146973,
        1.0756380558013916,
        0.01941310055553913,
        0.25080350041389465,
        -0.13507628440856934,
        -0.5847324132919312,
        0.8000063896179199,
        0.26384904980659485,
        -0.38741210103034973,
        0.3627922534942627,
        1.2846651077270508,
        -0.5574483871459961,
        -0.0009318852098658681,
        -0.31731924414634705,
        -0.4506898820400238,
        -0.13823305070400238,
        0.4010545611381531,
        0.26483824849128723,
        -0.35668230056762695,
        -0.7706801295280457,
        -1.1071192026138306,
        -0.09416866302490234,
        -0.1713758409023285,
        -0.4026913046836853,
        -0.1593443602323532,
        0.6441211700439453,
        2.1086809635162354,
        -0.0338197685778141,
        -2.0892186164855957,
        -1.399158000946045,
        -0.1589360237121582,
        -0.5616639256477356,
        0.01072267722338438,
        -0.5777812600135803,
        -0.9620802998542786,
        -2.1166470050811768,
        0.15103605389595032,
        -0.6202345490455627,
        -0.02760525979101658,
        0.507664144039154,
        -0.03897874429821968,
        -0.7726433277130127,
        0.07303930819034576,
        1.6593962907791138,
        0.11842459440231323,
        -0.01955443248152733,
        -1.130617618560791,
        -0.15682846307754517,
        0.684572160243988,
        1.8802344799041748,
        0.03573056682944298,
        -0.9898940920829773,
        0.5679031610488892,
        -0.4722326397895813,
        -0.6130186319351196,
        -0.23733197152614594,
        0.019129209220409393,
        0.20159968733787537,
        0.14215706288814545,
        0.8611922264099121,
        -0.004942410159856081,
        1.10700523853302,
        -0.06065529212355614,
        -1.3869692087173462,
        -1.5205596685409546,
        -0.09642690420150757,
        0.2508274018764496,
        -0.01045293640345335,
        -0.6430720686912537,
        -0.7209662199020386,
        0.07384725660085678,
        0.7831375598907471,
        0.028093762695789337,
        0.12454775720834732,
        -0.12078337371349335,
        0.7838026881217957,
        5.659553050994873,
        -0.8045341372489929,
        1.1023585796356201,
        0.39021894335746765,
        0.006567876320332289,
        -0.10834938287734985,
        -0.7025912404060364,
        0.12070214003324509,
        0.12281408905982971,
        1.3514255285263062,
        -1.0133390426635742,
        0.32815295457839966,
        1.5895355939865112,
        -0.9822245240211487,
        -0.6334257125854492,
        -0.022892633453011513,
        0.10797548294067383,
        0.680772602558136,
        -0.10559023916721344,
        1.2630590200424194,
        -1.2538212537765503,
        0.524186909198761,
        2.59175181388855,
        -0.7767248153686523,
        -0.05653524398803711,
        -0.07193073630332947,
        1.1789172887802124,
        -0.15848197042942047,
        0.13620617985725403,
        0.05930091813206673,
        -0.00324957724660635,
        -0.0487082339823246,
        0.04980272054672241,
        0.38708943128585815,
        0.02717340923845768,
        -0.45450013875961304,
        0.1388835906982422,
        0.4144626259803772,
        -0.432735413312912,
        0.05045338347554207,
        0.10265478491783142,
        -0.0028591607697308064,
        -0.10853278636932373,
        2.2408876419067383,
        0.02555563487112522,
        0.1291216015815735,
        0.0720820277929306,
        -1.111730694770813,
        -0.8299925923347473,
        0.9469069242477417,
        0.14607809484004974,
        0.13568001985549927,
        0.10605628788471222,
        -0.19652187824249268,
        -0.7531684637069702,
        -0.9140501022338867,
        -0.24488820135593414,
        -0.834335446357727,
        -0.20952703058719635,
        -0.14086925983428955,
        0.8745943307876587,
        0.15294356644153595,
        -0.9555975198745728,
        1.2803423404693604,
        -0.051532432436943054,
        -1.5035595893859863,
        0.0516088493168354,
        0.30278733372688293,
        -0.15177401900291443,
        -0.02920994907617569,
        0.28684818744659424,
        -0.1082606315612793,
        -0.06952358782291412,
        -2.5793049335479736,
        -0.02334865741431713,
        -0.035555340349674225,
        -0.10690498352050781,
        -0.04561644792556763,
        -0.11033119261264801,
        0.46779271960258484,
        -0.3030243515968323,
        -0.8353205919265747,
        -0.22480419278144836,
        1.351272463798523,
        -0.8516300916671753,
        -1.4271469116210938,
        0.0002485857403371483,
        0.27005502581596375,
        -0.061428941786289215,
        -1.482038974761963,
        -0.5300114154815674,
        0.5049149990081787,
        -0.9248947501182556,
        -1.488472819328308,
        -0.0004747537604998797,
        -0.12989695370197296,
        -0.009197632782161236,
        -1.3345015048980713,
        1.3984795808792114,
        0.10694243758916855,
        0.7609903812408447,
        -0.17559930682182312,
        -0.3218366503715515,
        -2.0058043003082275,
        -0.08969543874263763,
        -0.2600582540035248,
        -0.04389479011297226,
        -0.15861168503761292,
        -0.0022457416635006666,
        0.00533740408718586,
        -4.464710235595703,
        -0.022867169231176376,
        4.2585368156433105,
        0.20588761568069458,
        -0.00019449382671155035,
        -0.25855880975723267,
        -0.06638891249895096,
        -0.9061498641967773,
        0.7440972328186035,
        -0.5252200961112976,
        2.716214179992676,
        0.6272541880607605,
        -0.8254747986793518,
        -1.3731979131698608,
        -0.06803286820650101,
        0.7824687361717224,
        -0.04095179960131645,
        0.4392843544483185,
        -0.14388275146484375,
        -1.5913163423538208,
        0.9642691612243652,
        0.671988308429718,
        -0.8670691251754761,
        2.319559335708618,
        -0.43518921732902527,
        -1.6479322910308838,
        0.00026862340746447444,
        -0.5455217361450195,
        1.4492864608764648,
        -0.0025636472273617983,
        0.12475559115409851,
        0.014308230951428413,
        -0.08275791257619858,
        2.853384256362915,
        -0.13461990654468536,
        -2.4092953205108643,
        -0.2421800196170807,
        -0.7508712410926819,
        0.2757640480995178,
        0.10898199677467346,
        -0.1492256075143814,
        -0.3009285628795624,
        0.3003968298435211,
        0.027839457616209984,
        -0.17887704074382782,
        -1.4602025747299194,
        0.1361597180366516,
        -0.199778214097023,
        -0.11881802976131439,
        0.697816014289856,
        -2.331719160079956,
        -0.3731860816478729,
        1.2830482721328735,
        -1.0958582162857056,
        0.06639643013477325,
        -0.4158896803855896,
        -0.08657556027173996,
        1.5637935400009155,
        -0.8482221364974976,
        -2.0318961143493652,
        -0.8618780374526978,
        1.5136667490005493,
        -0.6233721375465393,
        0.6186283826828003,
        0.19795140624046326,
        0.8242796659469604,
        -0.016969934105873108,
        -0.07398960739374161,
        0.07506439834833145,
        2.9433648586273193,
        -0.9453646540641785,
        -2.9308485984802246,
        0.6440710425376892,
        -0.28574058413505554,
        0.026277408003807068,
        0.027577770873904228,
        0.007515388075262308,
        -0.022355901077389717,
        -0.0900917574763298,
        -0.23163098096847534,
        3.900195837020874,
        0.10906239598989487,
        -3.1518709659576416,
        1.058362364768982,
        -0.022781802341341972,
        -0.7825019955635071,
        0.05195072293281555,
        -1.14456045627594,
        -3.2459282875061035,
        -0.3385700285434723,
        -1.0415810346603394,
        0.41911640763282776,
        1.7242395877838135,
        -0.04387535899877548,
        0.006664385087788105,
        0.25238236784935,
        0.004509836435317993,
        -0.9795332551002502,
        1.4382578134536743,
        -0.007952887564897537,
        0.15928857028484344,
        0.07571987062692642,
        -0.0294095017015934,
        0.590087354183197,
        0.7187734842300415,
        -1.3089513778686523,
        0.03810783475637436,
        -0.883121907711029,
        -3.2317001819610596,
        0.43294835090637207,
        0.39971813559532166,
        -0.38368865847587585,
        -0.531959056854248,
        -0.7632185816764832,
        0.09691806137561798,
        0.5118779540061951,
        -0.20112518966197968,
        -1.7491346597671509,
        -1.2788158655166626,
        -0.058793649077415466,
        0.014584541320800781,
        0.05253680422902107,
        -0.39285117387771606,
        1.0888304710388184,
        -0.16626164317131042,
        0.42813292145729065,
        0.008560367859899998,
        0.6167781352996826,
        -0.40108340978622437,
        1.5034401416778564,
        1.0516510009765625,
        -0.27763980627059937,
        -0.9924413561820984,
        1.9892956018447876,
        0.39729005098342896,
        -1.474323034286499,
        -0.02031444013118744,
        -0.7840514779090881,
        -0.04352258890867233,
        0.49225154519081116,
        -1.3039875030517578,
        -0.8933624625205994,
        0.2612704932689667,
        -0.9547415375709534,
        -0.08547266572713852,
        -0.18679237365722656,
        0.02892652526497841,
        -0.6775280237197876,
        -0.041562508791685104,
        -1.5672370195388794,
        -0.6238555908203125,
        1.5255719423294067,
        -0.5055829882621765,
        -0.6043544411659241,
        -0.03739945963025093,
        -1.4788236618041992,
        -0.01138440053910017,
        0.46641603112220764,
        -0.2044886350631714,
        -0.05169828236103058,
        -0.22456315159797668,
        0.386687695980072,
        0.4118272066116333,
        0.05885817110538483,
        -1.2567720413208008,
        0.05223908647894859,
        0.013909885659813881,
        -0.06404197216033936,
        -0.9690319299697876,
        0.0705563947558403,
        -1.3867592811584473,
        -0.05601072683930397,
        -0.7815169095993042,
        -0.48006919026374817,
        -0.14308734238147736,
        1.5576614141464233,
        -0.011152352206408978,
        0.6008632183074951,
        -0.2287166714668274,
        0.721851646900177,
        0.539597749710083,
        0.10542946308851242,
        -2.309506416320801,
        -1.3713421821594238,
        -0.032659806311130524,
        0.5979939699172974,
        0.013799137435853481,
        -1.064767599105835,
        1.42545485496521,
        0.11316870152950287,
        0.3254834711551666,
        -0.19759972393512726,
        -0.1370088905096054,
        0.8305750489234924,
        -0.7910289168357849,
        -1.6568576097488403,
        -0.03167928010225296,
        -2.0289957523345947,
        3.46923565864563,
        0.10474047064781189,
        -0.6219056248664856,
        -0.08629222214221954,
        0.21383988857269287,
        -1.1919281482696533,
        0.21414580941200256,
        1.420901894569397,
        -0.040755752474069595,
        0.6513260006904602,
        -0.263724148273468,
        -1.011610507965088,
        -1.6540870666503906,
        -0.5228191614151001,
        2.855931520462036,
        -0.36029571294784546,
        -0.013401401229202747,
        -0.13568377494812012,
        0.05673851817846298,
        -0.3251246511936188,
        0.09681490063667297,
        -2.4195334911346436,
        -0.04068966209888458,
        1.6645171642303467,
        0.01696797087788582,
        -0.3863222897052765,
        -0.02556581050157547,
        0.09572812914848328,
        -0.0731828361749649,
        0.01229154970496893,
        0.006915237754583359,
        -0.08817419409751892,
        4.084091663360596,
        0.008166465908288956,
        -3.856891632080078,
        -0.39584702253341675,
        -0.03506605327129364,
        -0.33227071166038513,
        0.0398208312690258,
        -1.2520180940628052,
        0.9751794934272766,
        -0.6754860281944275,
        -0.30746787786483765,
        0.7794287204742432,
        0.03724976256489754,
        -1.5830119848251343,
        -0.030434589833021164,
        -0.26624009013175964,
        -0.01777723990380764,
        -0.09102539718151093,
        -0.008138212375342846,
        -0.006288114935159683,
        4.182585716247559,
        0.01065334863960743,
        -4.2903032302856445,
        0.10541559755802155,
        -0.0045179990120232105,
        -0.08072294294834137,
        0.02750444784760475,
        0.02636956237256527,
        -0.0150652090087533,
        -0.10636851191520691,
        -3.991926431655884,
        0.1339818239212036,
        2.8174192905426025,
        1.93934965133667,
        -0.01148648839443922,
        -1.4725236892700195,
        -0.01027664914727211,
        -0.240930438041687,
        -0.5086836218833923,
        -1.2522307634353638,
        -0.2959526479244232,
        1.476362705230713,
        -0.06285367161035538,
        0.9362029433250427,
        -0.10604184865951538,
        0.10706713050603867,
        0.003512491937726736,
        -1.385324239730835,
        1.6828185319900513,
        0.08748291432857513,
        -0.4938759505748749,
        -0.07996835559606552,
        0.2174033373594284,
        -0.9046852588653564,
        -1.7886747121810913,
        0.8246160745620728,
        0.06964270025491714,
        0.7456377744674683,
        0.1303907334804535,
        -0.21327228844165802,
        1.7088899612426758,
        0.03650190681219101,
        -0.8259221911430359,
        0.9282301664352417,
        -0.03145209327340126,
        0.8000136017799377,
        0.03584170341491699,
        0.7596111297607422,
        -0.40686947107315063,
        1.1874043941497803,
        1.1611567735671997,
        -1.6287096738815308,
        -0.4923264682292938,
        1.6842010021209717,
        0.04556937888264656,
        -1.389806866645813,
        0.02134622633457184,
        0.10855794697999954,
        -0.09044209122657776,
        -0.7523779273033142,
        -5.676553726196289,
        0.7385351657867432,
        -1.1288292407989502,
        0.3491038978099823,
        0.017276667058467865,
        -0.08985811471939087,
        0.057165324687957764,
        -1.344853401184082,
        -0.27069494128227234,
        0.22129479050636292,
        0.27151378989219666,
        -0.2866843044757843,
        1.2979413270950317,
        -1.5416603088378906,
        0.056501131504774094,
        -0.8824836611747742,
        0.10137252509593964,
        1.4059195518493652,
        0.053324583917856216,
        0.375552237033844,
        1.7492295503616333,
        0.46835848689079285,
        -1.8378113508224487,
        0.8585025072097778,
        -0.08081680536270142,
        0.4882521331310272,
        -0.10855567455291748,
        -0.8023871183395386,
        -0.5912868976593018,
        -0.08559605479240417,
        0.31621435284614563,
        0.07676823437213898,
        1.7165439128875732,
        -0.2622726559638977,
        -0.05349797010421753,
        0.8256688714027405,
        0.029154231771826744,
        -1.1551921367645264,
        1.309848427772522,
        0.7568956017494202,
        1.8708093166351318,
        -0.9588540196418762,
        -0.3255174160003662,
        -1.1923243999481201,
        1.4601342678070068,
        0.7428197860717773,
        -0.08649221807718277,
        0.14767606556415558,
        -0.4998375177383423,
        -0.048938725143671036,
        0.25543370842933655,
        -0.29981762170791626,
        -0.008463808335363865,
        -0.4230644106864929,
        0.716014564037323,
        -0.033932119607925415,
        -0.10046570003032684,
        0.06541823595762253,
        0.01028098352253437,
        0.20434270799160004,
        -3.1181821823120117,
        -0.1246860921382904,
        2.7040059566497803,
        -1.8059691190719604,
        0.000532063189893961,
        0.12526938319206238,
        -0.14858169853687286,
        -0.663764238357544,
        1.0832139253616333,
        -0.02333427034318447,
        -0.08993593603372574,
        0.07796923071146011,
        0.28789690136909485,
        -0.1547705978155136,
        -0.08584636449813843,
        1.3576983213424683,
        -0.03662046790122986,
        -0.958611786365509,
        0.35077565908432007,
        -1.224586009979248,
        -0.1163109689950943,
        1.540502667427063,
        0.6897417902946472,
        0.2956487238407135,
        -1.3995553255081177,
        -1.1030133962631226,
        -0.03608417510986328,
        -0.7838950753211975,
        -0.9723271727561951,
        2.1900012493133545,
        0.19262558221817017,
        0.3921557068824768,
        -0.061095230281353,
        0.36004582047462463,
        0.10019540041685104,
        -1.1185508966445923
      ]
    },
    {
      "activation": "rectified",
      "architecture": "dense",
      "bias": [
        2.4926576614379883,
        -0.3570517897605896,
        1.52883780002594,
        -9.231870651245117,
        -1.6547331809997559,
        -0.37336066365242004,
        1.2597949504852295,
        0.3727971613407135,
        -2.8368828296661377,
        -3.3285231590270996,
        -2.6085517406463623,
        -3.2842063903808594,
        2.3913848400115967,
        0.9774802923202515,
        -0.21090874075889587,
        1.5558257102966309,
        -2.4259159564971924,
        -1.2606210708618164,
        -0.1334724873304367,
        -6.368843078613281,
        -0.2591087222099304,
        1.253674864768982,
        -5.543660640716553,
        -0.30778107047080994,
        2.0497148036956787,
        1.348971962928772,
        1.693511962890625,
        2.105055332183838,
        -0.6874558329582214,
        0.09869662672281265,
        0.7291238307952881,
        -0.5170074105262756,
        0.0656885951757431,
        1.6254550218582153,
        -0.1519518494606018,
        1.1258269548416138,
        -7.0792999267578125,
        1.2110174894332886,
        -0.48555752635002136,
        -1.5814919471740723,
        -3.5540637969970703,
        -0.5737778544425964,
        -1.0928783416748047,
        -2.469076633453369,
        0.33200550079345703,
        1.5745155811309814,
        -0.6895318627357483,
        -1.2454389333724976,
        -0.21686625480651855,
        -4.900266647338867,
        -0.1700255274772644,
        -0.7711136937141418,
        0.48141515254974365,
        0.15363207459449768,
        -1.0201469659805298,
        -1.7118473052978516,
        0.23968194425106049,
        0.8206341862678528,
        1.3022561073303223,
        -0.6418716907501221,
        1.5205535888671875,
        0.1347936987876892,
        0.33991190791130066,
        0.08323029428720474
      ],
      "weights": [
        1.2850133180618286,
        0.6884994506835938,
        -0.7001557350158691,
        -0.9916387796401978,
        -0.16314341127872467,
        -0.05746546760201454,
        0.17627033591270447,
        -1.8230218887329102,
        0.27802371978759766,
        0.33597201108932495,
        -0.6316229701042175,
        -0.9018749594688416,
        0.0015466023469343781,
        -1.7983043193817139,
        0.5104251503944397,
        -0.7591855525970459,
        -0.457675576210022,
        0.20026294887065887,
        0.48112109303474426,
        1.2719569206237793,
        0.4420161545276642,
        0.36031898856163025,
        -1.0974539518356323,
        3.476353883743286,
        0.8480412364006042,
        0.1417548805475235,
        0.042649686336517334,
        0.14077304303646088,
        1.0262017250061035,
        -0.1150166392326355,
        0.24589647352695465,
        -1.1997298002243042,
        0.09467298537492752,
        -0.057333558797836304,
        -0.22086897492408752,
        0.29772526025772095,
        0.11451762169599533,
        -0.08109812438488007,
        0.9042056798934937,
        -0.5161359906196594,
        -4.017266750335693,
        -0.08146921545267105,
        -0.055943991988897324,
        0.09646599739789963,
        0.3724927008152008,
        1.6921145915985107,
        -4.061099052429199,
        0.12111201137304306,
        -3.2477047443389893,
        1.0057185888290405,
        -2.1977379322052,
        0.2125827968120575,
        -0.7117993235588074,
        -0.49664634466171265,
        0.10461880266666412,
        1.114585280418396,
        -0.4155464172363281,
        1.7793195247650146,
        0.43592849373817444,
        0.12239201366901398,
        0.8784626722335815,
        1.4224412441253662,
        0.04271320626139641,
        0.18871848285198212,
        -0.40696099400520325,
        -0.5113711953163147,
        0.10509077459573746,
        -0.8399586081504822,
        -0.1523384302854538,
        0.1497725546360016,
        -1.0194423198699951,
        -1.1042659282684326,
        0.21694663166999817,
        -0.5470255613327026,
        0.0782017707824707,
        -0.8190203905105591,
        0.023283421993255615,
        0.10658769309520721,
        -0.8810343742370605,
        -0.15114153921604156,
        0.15899035334587097,
        -0.4469025135040283,
        -0.12771570682525635,
        -0.3615424931049347,
        -0.6835162043571472,
        -0.43449535965919495,
        0.01516714971512556,
        0.0799746885895729,
        -0.17818127572536469,
        -0.019256168976426125,
        0.12395737320184708,
        -0.007081709336489439,
        -0.6660089492797852,
        -0.39412614703178406,
        -0.6236415505409241,
        -0.10743275284767151,
        -0.9068838357925415,
        -0.23907649517059326,
        -0.898091197013855,
        -0.32507848739624023,
        -2.2312519550323486,
        -1.0034675598144531,
        -0.7013559341430664,
        -1.3754475116729736,
        -0.20711849629878998,
        -0.5614715814590454,
        -0.12584185600280762,
        -0.8066470623016357,
        -0.30576053261756897,
        -0.6695345640182495,
        -0.5643219947814941,
        -0.4375014901161194,
        -0.05725211650133133,
        -0.3334680199623108,
        -0.6606000661849976,
        -0.8084700703620911,
        -0.26260778307914734,
        -0.14684836566448212,
        0.06759874522686005,
        -1.5994104146957397,
        -0.756370484828949,
        -0.017001643776893616,
        -0.21402627229690552,
        -1.2323189973831177,
        -0.29246190190315247,
        -0.033055759966373444,
        -0.22152093052864075,
        -0.44513624906539917,
        2.245760440826416,
        -0.05048978328704834,
        0.02416119910776615,
        0.4010988473892212,
        -1.54872727394104,
        0.16094735264778137,
        -0.5201537609100342,
        0.2956015467643738,
        0.45325472950935364,
        0.34552597999572754,
        0.2055860012769699,
        2.025357246398926,
        -4.644728660583496,
        4.667963027954102,
        -0.42933139204978943,
        0.02284073270857334,
        2.7791876792907715,
        2.873387098312378,
        3.0074214935302734,
        0.27496159076690674,
        0.5950893759727478,
        0.4318476617336273,
        -0.6375910043716431,
        0.7322679758071899,
        -0.3676954507827759,
        -1.1128556728363037,
        -10.825129508972168,
        0.04411132633686066,
        0.4034426510334015,
        -0.5024803280830383,
        -2.2895145416259766,
        0.32449376583099365,
        -1.3000426292419434,
        -0.5863696932792664,
        -3.4573535919189453,
        0.3144375681877136,
        -0.9282810688018799,
        -0.6161400675773621,
        1.20500648021698,
        1.4747792482376099,
        -0.3934338688850403,
        -0.31459710001945496,
        -1.0395363569259644,
        -0.012803489342331886,
        0.0063003674149513245,
        -0.35104259848594666,
        -0.4589158892631531,
        -0.5544590353965759,
        0.1101212352514267,
        0.3244510889053345,
        2.2113630771636963,
        -0.060699786990880966,
        0.18775174021720886,
        -0.9037399888038635,
        -6.843501567840576,
        -0.1369735151529312,
        0.38614964485168457,
        0.7201945781707764,
        -0.17259342968463898,
        -0.8105416893959045,
        -0.1782296895980835,
        0.21344073116779327,
        -0.27932989597320557,
        0.574123203754425,
        2.4061155319213867,
        0.5323792695999146,
        0.21349304914474487,
        4.556183815002441,
        1.6957529783248901,
        1.152053952217102,
        -2.1474201679229736,
        9.402643203735352,
        -1.286626935005188,
        2.3371903896331787,
        -0.7643097043037415,
        1.2120449542999268,
        1.2819758653640747,
        1.1891741752624512,
        0.6800203323364258,
        -0.6237730979919434,
        2.2914974689483643,
        8.398804664611816,
        0.2583983540534973,
        4.215431213378906,
        -0.18588347733020782,
        -0.23745205998420715,
        2.633298397064209,
        -4.448302268981934,
        -1.3541009426116943,
        0.5412102341651917,
        -1.0249578952789307,
        2.268962860107422,
        3.9980807304382324,
        -0.9078245162963867,
        -2.1455276012420654,
        -0.8294427990913391,
        -0.6741726994514465,
        -0.984516441822052,
        -2.3088347911834717,
        -1.6875933408737183,
        0.273394912481308,
        5.166820049285889,
        2.6310975551605225,
        2.235095739364624,
        1.7023321390151978,
        -1.1236153841018677,
        -0.5619348287582397,
        -1.3001378774642944,
        -0.047225914895534515,
        4.97194766998291,
        1.3996022939682007,
        3.3711109161376953,
        -2.3010106086730957,
        -1.225642442703247,
        2.2219467163085938,
        -3.05336332321167,
        1.9478116035461426,
        0.596886396408081,
        0.5175628662109375,
        1.0471631288528442,
        3.5026352405548096,
        0.664706289768219,
        -0.690488338470459,
        1.390672206878662,
        1.5865763425827026,
        -1.9744940996170044,
        1.0036271810531616,
        -0.7395440936088562,
        -0.05470320209860802,
        0.2290199249982834,
        0.14784938097000122,
        -7.652698040008545,
        -0.8049279451370239,
        -1.636370062828064,
        0.6444211602210999,
        -1.2465131282806396,
        0.7323747277259827,
        1.6629233360290527,
        0.30035436153411865,
        -0.07038635015487671,
        -0.10399516671895981,
        -2.1326842308044434,
        -0.6308239698410034,
        -0.3345910608768463,
        -2.1330559253692627,
        0.10932622104883194,
        -1.4505181312561035,
        -2.3556416034698486,
        0.0028919195756316185,
        -1.9238284826278687,
        1.4450498819351196,
        -0.4927292466163635,
        -0.5206763744354248,
        0.575519323348999,
        -1.1020489931106567,
        -1.2408702373504639,
        0.4984056055545807,
        0.3913896679878235,
        -0.4800401031970978,
        -0.45460838079452515,
        0.16129058599472046,
        0.7612609267234802,
        0.650411069393158,
        -1.130598783493042,
        0.4632449448108673,
        -0.40058740973472595,
        0.4083835482597351,
        -2.1607441902160645,
        1.3875948190689087,
        -0.9850330948829651,
        0.9489649534225464,
        -0.4701578617095947,
        -0.8023877143859863,
        -3.7638514041900635,
        -0.44341668486595154,
        -1.2751989364624023,
        -0.32350555062294006,
        0.4582332968711853,
        -0.06658152490854263,
        0.1397053599357605,
        3.415367364883423,
        0.174399271607399,
        -0.8786469101905823,
        -2.626659393310547,
        -1.8789297342300415,
        -0.6271763443946838,
        0.48714762926101685,
        0.492994487285614,
        -2.4026718139648438,
        0.4284205734729767,
        0.5413751006126404,
        1.5116288661956787,
        -0.310247004032135,
        0.7022284865379333,
        -1.041116714477539,
        1.4320142269134521,
        -0.012171652168035507,
        -1.5127718448638916,
        0.6958609223365784,
        -0.4920463562011719,
        -1.2445855140686035,
        1.0554888248443604,
        0.09520509839057922,
        0.5286176800727844,
        -2.8452565670013428,
        4.398622512817383,
        0.7039967775344849,
        0.16176345944404602,
        0.7674580216407776,
        0.6879181265830994,
        2.1131739616394043,
        4.029166221618652,
        -0.8745352625846863,
        1.0775368213653564,
        0.08556489646434784,
        -0.6149508953094482,
        -0.46131443977355957,
        -0.803114116191864,
        0.03802506625652313,
        1.7550830841064453,
        1.479635238647461,
        0.38521531224250793,
        0.05776412412524223,
        -0.058951299637556076,
        -0.3852485120296478,
        0.7807129621505737,
        0.32999387383461,
        -5.3554558753967285,
        -0.6232131719589233,
        -1.0300829410552979,
        1.8858722448349,
        -1.5509426593780518,
        -1.212286353111267,
        0.92318195104599,
        0.6700359582901001,
        -0.5666391849517822,
        0.46250519156455994,
        -2.965866804122925,
        0.8200582265853882,
        -0.693041205406189,
        -0.27247777581214905,
        -1.0898088216781616,
        3.026923179626465,
        -0.474780797958374,
        3.2707602977752686,
        -0.09873383492231369,
        -1.6944313049316406,
        0.7361441254615784,
        1.512683391571045,
        2.5373899936676025,
        -0.10053253173828125,
        1.4321178197860718,
        0.9236000776290894,
        -0.29036182165145874,
        0.359138160943985,
        -0.8786616921424866,
        0.3177022337913513,
        0.6882793307304382,
        -1.4058525562286377,
        -7.126498222351074,
        -1.1678473949432373,
        -1.033599853515625,
        -0.059668172150850296,
        -0.3769097924232483,
        0.5094380974769592,
        -0.6548640131950378,
        -0.1163974329829216,
        -0.5122052431106567,
        -1.5193264484405518,
        -1.548705816268921,
        0.2597604990005493,
        -0.4587157666683197,
        -2.793933629989624,
        1.587235689163208,
        1.0767183303833008,
        1.3958700895309448,
        0.2224946916103363,
        -0.012124135158956051,
        -0.3497895300388336,
        3.1645755767822266,
        0.1055460050702095,
        -0.5949494242668152,
        0.4660521149635315,
        -0.7452483177185059,
        1.2267512083053589,
        0.5829291939735413,
        -0.7156252861022949,
        -2.1814212799072266,
        -0.20237839221954346,
        -0.14422224462032318,
        -0.3257811665534973,
        0.40024125576019287,
        -0.14972618222236633,
        -0.8275105953216553,
        0.660071849822998,
        -0.5130797028541565,
        0.6640620231628418,
        -0.2416735589504242,
        -0.522939145565033,
        0.5685511231422424,
        0.45259782671928406,
        -8.903542518615723,
        -3.1038599014282227,
        -0.29237818717956543,
        -3.916421890258789,
        0.5823708176612854,
        0.23401735723018646,
        0.2817719280719757,
        2.2058286666870117,
        0.13713303208351135,
        -1.8230650424957275,
        0.7444261908531189,
        1.1187541484832764,
        1.0633653402328491,
        0.23834657669067383,
        0.07575032114982605,
        1.0287797451019287,
        0.33504730463027954,
        -0.12354892492294312,
        0.5402278304100037,
        1.5033988952636719,
        -0.26010966300964355,
        0.10104052722454071,
        1.7645485401153564,
        0.6054635047912598,
        1.8228188753128052,
        -0.975216269493103,
        3.3475680351257324,
        -0.7045589089393616,
        -0.1073606088757515,
        0.2980109751224518,
        2.272226095199585,
        -6.153461456298828,
        -0.07864847034215927,
        -0.5957580208778381,
        0.05066091567277908,
        2.137859344482422,
        6.735690593719482,
        1.4303637742996216,
        0.29235804080963135,
        -1.443199634552002,
        0.11315669119358063,
        1.2296819686889648,
        0.2100113034248352,
        0.08003203570842743,
        -0.8524339199066162,
        -0.7313349843025208,
        0.8350633382797241,
        0.49039018154144287,
        0.752291202545166,
        0.07094095647335052,
        -0.5704143047332764,
        -4.056318283081055,
        -2.210779905319214,
        -4.262964725494385,
        1.2977378368377686,
        -2.547226667404175,
        0.04680965095758438,
        3.158046245574951,
        -0.41987624764442444,
        2.0557682514190674,
        0.4642188847064972,
        2.0966663360595703,
        -0.8161180019378662,
        0.5770670175552368,
        -0.3205699622631073,
        -0.31939181685447693,
        0.8302975296974182,
        -0.46262502670288086,
        -1.2030253410339355,
        -0.14867588877677917,
        1.0979719161987305,
        0.5690502524375916,
        0.1459767073392868,
        -7.743264675140381,
        2.4796268939971924,
        1.5569732189178467,
        0.3307921886444092,
        0.1155073493719101,
        1.0356037616729736,
        0.42665788531303406,
        0.2678532004356384,
        0.032674115151166916,
        0.11842989176511765,
        0.5228803157806396,
        0.024266885593533516,
        -1.7003810405731201,
        -2.290330410003662,
        0.5111479163169861,
        0.42042750120162964,
        0.5397400856018066,
        0.7178098559379578,
        0.5728498697280884,
        -1.7153904438018799,
        0.14271660149097443,
        0.38563621044158936,
        0.44270503520965576,
        4.953393936157227,
        0.20096644759178162,
        -1.024718999862671,
        -0.6796364188194275,
        -0.6332427859306335,
        -0.8466245532035828,
        1.358548641204834,
        -0.679576575756073,
        -0.5014117360115051,
        1.0924745798110962,
        -0.6658840179443359,
        0.44265809655189514,
        -0.18967784941196442,
        0.02794870361685753,
        -2.105677843093872,
        0.9975667595863342,
        -0.21043676137924194,
        0.08062514662742615,
        -0.6512591242790222,
        -0.29770228266716003,
        0.01822725124657154,
        -0.07783816754817963,
        0.5273793935775757,
        -0.5360852479934692,
        -0.5089789628982544,
        1.562686562538147,
        -0.08366546034812927,
        0.7709693908691406,
        -0.0017434533219784498,
        -0.7857905626296997,
        -0.08784984797239304,
        0.07279853522777557,
        -2.924117088317871,
        0.31281644105911255,
        -1.4961591958999634,
        -1.1255265474319458,
        0.844516396522522,
        -0.8674486875534058,
        -0.49370425939559937,
        0.4476724863052368,
        -0.12242413312196732,
        0.5898886322975159,
        0.11776534467935562,
        2.6642329692840576,
        0.4955691397190094,
        -0.24975170195102692,
        0.34898895025253296,
        1.224204421043396,
        0.4593851864337921,
        0.6218779683113098,
        0.315144807100296,
        0.6350654363632202,
        0.7647743821144104,
        -4.874898910522461,
        -0.27793246507644653,
        0.824739396572113,
        -4.348357200622559,
        0.6437287926673889,
        1.086421251296997,
        -0.9495492577552795,
        0.6809148192405701,
        0.46113163232803345,
        -0.04458284378051758,
        -14.064518928527832,
        6.482412338256836,
        0.3264292776584625,
        -0.10836531221866608,
        0.6281244158744812,
        0.16285715997219086,
        -0.04294860363006592,
        3.7118959426879883,
        -1.9456872940063477,
        0.6397668123245239,
        -0.5775543451309204,
        -1.8161453008651733,
        -0.09902019053697586,
        -0.6076681613922119,
        1.2157220840454102,
        0.13280178606510162,
        0.5071847438812256,
        -0.09211760014295578,
        0.1509767323732376,
        -0.8891127705574036,
        -0.11500797420740128,
        1.2149534225463867,
        0.29072800278663635,
        -1.0930835008621216,
        -0.5560598969459534,
        -0.24642199277877808,
        -0.2507343590259552,
        -3.1389825344085693,
        -0.3504357933998108,
        0.3068670928478241,
        0.1153390109539032,
        -1.67965567111969,
        -0.1262032836675644,
        -1.742572546005249,
        0.5053320527076721,
        -0.01972264237701893,
        -1.2771196365356445,
        -0.6762087345123291,
        -0.4807433784008026,
        0.4532921016216278,
        1.4715654850006104,
        -0.6520240902900696,
        -12.101019859313965,
        0.8077688813209534,
        -0.38275784254074097,
        0.7153269648551941,
        0.556128203868866,
        1.259873628616333,
        1.164950966835022,
        1.1536908149719238,
        -0.060184821486473083,
        -0.7569289803504944,
        2.1437888145446777,
        -3.544384002685547,
        0.7447967529296875,
        2.3234217166900635,
        -0.4262571930885315,
        -0.12474160641431808,
        0.14563602209091187,
        2.528204917907715,
        1.2947145700454712,
        -2.557469367980957,
        0.0059609184972941875,
        3.601316213607788,
        0.7969885468482971,
        2.23734712600708,
        -0.043674174696207047,
        0.3141172230243683,
        -0.13885560631752014,
        -1.0873914957046509,
        -1.5822664499282837,
        1.0480663776397705,
        -1.1016700267791748,
        -0.6089102029800415,
        -0.6047816276550293,
        0.4312320649623871,
        0.5554382801055908,
        -1.570436716079712,
        -1.611249566078186,
        0.7974519729614258,
        -1.519928216934204,
        -0.022304074838757515,
        -0.5379888415336609,
        -0.28640955686569214,
        1.4045379161834717,
        -2.2406458854675293,
        1.4649816751480103,
        2.577235221862793,
        -0.7154951095581055,
        0.31167206168174744,
        -2.839751720428467,
        1.7111430168151855,
        1.4180679321289062,
        -0.6884598135948181,
        -1.640244960784912,
        -1.6203653812408447,
        0.0269969142973423,
        3.7331628799438477,
        -0.688158392906189,
        -0.8693125247955322,
        1.0876386165618896,
        0.43548429012298584,
        1.4863777160644531,
        -0.3642011880874634,
        -0.16192609071731567,
        -0.14740492403507233,
        0.59633469581604,
        1.5254149436950684,
        -0.09022685885429382,
        1.1573467254638672,
        0.07089337706565857,
        0.008512242697179317,
        2.8706047534942627,
        -0.6336132884025574,
        0.6511817574501038,
        1.309828519821167,
        -2.0633349418640137,
        0.5523996949195862,
        0.7478229999542236,
        2.177932024002075,
        -0.3267606198787689,
        2.4844751358032227,
        0.29969415068626404,
        0.9820850491523743,
        0.020873621106147766,
        1.1209346055984497,
        -1.4668340682983398,
        1.3714934587478638,
        0.8800646066665649,
        0.5142027735710144,
        -0.3626873791217804,
        -0.842016339302063,
        2.8515539169311523,
        1.9436008930206299,
        2.7915396690368652,
        0.9000181555747986,
        1.229278326034546,
        0.34148091077804565,
        1.4752998352050781,
        -2.666929244995117,
        -0.5001917481422424,
        -1.1007099151611328,
        0.00054165004985407,
        2.2634456157684326,
        0.9286578893661499,
        -1.3936302661895752,
        -1.6015219688415527,
        -0.935646653175354,
        0.27207767963409424,
        -2.71592378616333,
        0.7066041827201843,
        -1.4138002395629883,
        -1.712915062904358,
        0.7155029773712158,
        1.7992995977401733,
        2.2049331665039062,
        -0.5493300557136536,
        -0.15421263873577118,
        -1.2537248134613037,
        -0.6707839965820312,
        0.2625751793384552,
        1.6425392627716064,
        0.660454511642456,
        -0.20051687955856323,
        -1.1945712566375732,
        -1.3794913291931152,
        2.3480772972106934,
        -0.5800638198852539,
        1.886308193206787,
        -1.7780836820602417,
        0.881037175655365,
        1.5900259017944336,
        3.4321448802948,
        0.321215957403183,
        -0.7255845665931702,
        1.4036896228790283,
        -0.3546801209449768,
        2.8374316692352295,
        0.1450883448123932,
        0.04373069852590561,
        -0.8735030293464661,
        1.1070058345794678,
        0.3452998697757721,
        -1.745059609413147,
        -1.5428094863891602,
        0.31123578548431396,
        0.2490222305059433,
        0.7674261927604675,
        1.423817753791809,
        0.05166272073984146,
        -0.2604488134384155,
        0.38283172249794006,
        0.5476057529449463,
        5.259688854217529,
        -0.07606804370880127,
        -0.7231490015983582,
        -8.468805313110352,
        -0.619127631187439,
        -0.7634927034378052,
        -0.9380097985267639,
        -0.21401335299015045,
        0.3958393633365631,
        -1.9632164239883423,
        0.04784201830625534,
        -0.2849074602127075,
        -0.0001628604222787544,
        0.36412397027015686,
        0.837182879447937,
        -0.4818248152732849,
        -0.9570862650871277,
        -0.7995201349258423,
        0.7043841481208801,
        0.08369535207748413,
        -0.2753808796405792,
        -0.7062336802482605,
        -1.7974592447280884,
        0.11534467339515686,
        0.6865604519844055,
        -0.25779908895492554,
        -0.6040874719619751,
        0.28842151165008545,
        0.17090170085430145,
        -0.3844808340072632,
        -2.4252588748931885,
        -0.3720828592777252,
        -6.1315155029296875,
        0.25985991954803467,
        -0.874580979347229,
        -0.5688040256500244,
        0.7479143142700195,
        0.7330095171928406,
        -0.7285805940628052,
        -1.6555447578430176,
        -0.05304565653204918,
        0.2995104491710663,
        1.3779019117355347,
        5.317155361175537,
        -0.586039662361145,
        -0.5385913848876953,
        0.21458646655082703,
        -0.2650257349014282,
        -3.0882651805877686,
        -0.043454304337501526,
        1.9142730236053467,
        -2.00445818901062,
        0.4161081612110138,
        -2.0996429920196533,
        0.40924468636512756,
        0.16128352284431458,
        0.8104692697525024,
        -0.1618296504020691,
        0.12167618423700333,
        0.03943594917654991,
        -0.13173449039459229,
        0.38624799251556396,
        0.7212162017822266,
        -7.642574787139893,
        9.238574981689453,
        0.5091935992240906,
        0.17671750485897064,
        -0.4424460232257843,
        -3.638422966003418,
        0.07618174701929092,
        0.3824783265590668,
        -2.184627056121826,
        0.8449175357818604,
        0.9636235237121582,
        0.692447304725647,
        -0.6755256056785583,
        -4.339888095855713,
        0.007432447746396065,
        0.005983397364616394,
        0.2327527105808258,
        0.8049460649490356,
        0.18439237773418427,
        0.03652683645486832,
        -0.4090772867202759,
        1.2268496751785278,
        0.4285133481025696,
        1.7579869031906128,
        -0.3429751694202423,
        0.30935215950012207,
        2.5479085445404053,
        -4.275519847869873,
        -1.547439455986023,
        -0.07477472722530365,
        -4.805583953857422,
        -0.6757897138595581,
        0.7426673173904419,
        0.24753597378730774,
        0.3354514539241791,
        1.1120483875274658,
        0.513684093952179,
        -1.773802399635315,
        0.9790414571762085,
        -0.9718934893608093,
        0.36644822359085083,
        -0.9214646220207214,
        -9.337271690368652,
        -0.16444456577301025,
        0.81534343957901,
        -1.5760904550552368,
        -1.818363070487976,
        -0.08582472056150436,
        0.07544183731079102,
        -0.2287980616092682,
        -1.2301687002182007,
        0.3442036509513855,
        0.13247881829738617,
        0.21417365968227386,
        -0.3731820285320282,
        1.6876031160354614,
        0.17410998046398163,
        0.8083232045173645,
        -4.842916965484619,
        -4.915302753448486,
        -1.1271125078201294,
        1.4632762670516968,
        0.18792684376239777,
        -0.47855880856513977,
        0.1649211347103119,
        2.570729970932007,
        0.7893529534339905,
        -1.1396164894104004,
        -1.5401993989944458,
        1.1547541618347168,
        0.5307564735412598,
        -2.3682498931884766,
        0.4112764000892639,
        -0.16653811931610107,
        0.4456923305988312,
        0.34262511134147644,
        -2.8809943199157715,
        -0.16465440392494202,
        1.9111539125442505,
        0.8456162810325623,
        0.24186566472053528,
        -0.7355203628540039,
        0.4526333212852478,
        0.10885839909315109,
        0.03988827392458916,
        0.8226277828216553,
        0.8590769171714783,
        0.9976617693901062,
        -0.6403867602348328,
        -0.6126911044120789,
        1.7664752006530762,
        1.0435165166854858,
        0.8895578980445862,
        -0.6809989213943481,
        0.9843327403068542,
        -1.3157325983047485,
        0.46352046728134155,
        6.547510147094727,
        0.10167457163333893,
        -0.8317679762840271,
        -1.3422315120697021,
        -0.045957908034324646,
        3.315430164337158,
        -0.45634931325912476,
        0.390130877494812,
        0.8244733214378357,
        0.018921062350273132,
        -1.5808649063110352,
        2.2997777462005615,
        -1.6567710638046265,
        0.5260671377182007,
        -1.7405380010604858,
        -0.606867253780365,
        -1.4548711776733398,
        1.378366231918335,
        -1.390689730644226,
        1.6378194093704224,
        0.0012994452845305204,
        0.1479220688343048,
        1.8091071844100952,
        -0.19945527613162994,
        0.020636258646845818,
        0.10936173796653748,
        -1.0235999822616577,
        0.3447781801223755,
        0.043295715004205704,
        -2.174123764038086,
        -1.0537177324295044,
        -0.17479203641414642,
        0.44135385751724243,
        -0.7438071370124817,
        -2.1123974323272705,
        1.8038543462753296,
        -1.3257290124893188,
        0.9083718061447144,
        1.3391202688217163,
        0.33071035146713257,
        -0.3825969398021698,
        -0.12452126294374466,
        -4.4535417556762695,
        0.1252659261226654,
        0.034044940024614334,
        -0.004901781212538481,
        0.6703018546104431,
        -1.5389050245285034,
        0.1319698989391327,
        -1.268710970878601,
        0.4679385721683502,
        -0.45764127373695374,
        0.734449028968811,
        0.2794780433177948,
        -5.213900566101074,
        0.5527352094650269,
        0.9408041834831238,
        0.6872880458831787,
        -0.07750653475522995,
        1.7659165859222412,
        -0.2336953580379486,
        0.30965903401374817,
        -0.3439320921897888,
        -0.7554047703742981,
        1.548264980316162,
        0.47932034730911255,
        0.6348463892936707,
        1.7529689073562622,
        -1.020452857017517,
        3.2004053592681885,
        -0.28251153230667114,
        2.7364344596862793,
        0.3410269618034363,
        0.0410311222076416,
        0.13871018588542938,
        2.3041865825653076,
        -0.7747934460639954,
        -0.40582236647605896,
        -0.1552589237689972,
        0.3034830391407013,
        -4.060724258422852,
        -0.010810277424752712,
        0.32729408144950867,
        3.1650266647338867,
        0.43802234530448914,
        0.4828033745288849,
        10.328622817993164,
        -0.028658533468842506,
        0.2302706390619278,
        -1.4182217121124268,
        0.5569283366203308,
        -0.7736548781394958,
        1.8129150867462158,
        0.1777503341436386,
        0.609484851360321,
        1.2464138269424438,
        1.0938234329223633,
        1.1571131944656372,
        0.40656670928001404,
        1.5957250595092773,
        1.0412554740905762,
        1.0053203105926514,
        -1.9426988363265991,
        2.473163604736328,
        0.10530886054039001,
        -1.8411988019943237,
        -0.6567689180374146,
        -0.30882126092910767,
        1.6697185039520264,
        0.7469229102134705,
        0.06691653281450272,
        2.470039129257202,
        1.9329880475997925,
        1.5712180137634277,
        1.1758136749267578,
        0.6344261765480042,
        0.18546822667121887,
        0.5615397095680237,
        0.423425555229187,
        1.0002778768539429,
        0.20225225389003754,
        1.213005781173706,
        0.9980782270431519,
        1.9536302089691162,
        1.1928733587265015,
        -0.31219762563705444,
        -1.221001386642456,
        1.42000412940979,
        10.405616760253906,
        1.7683391571044922,
        0.6542589664459229,
        0.5847590565681458,
        0.8851441740989685,
        8.967363357543945,
        -0.7428510189056396,
        1.2121765613555908,
        2.2260701656341553,
        0.7771762609481812,
        -0.5591979622840881,
        -0.7507222294807434,
        1.1314516067504883,
        -0.6324273347854614,
        -0.4100441336631775,
        0.7093039155006409,
        -1.0130774974822998,
        0.12573027610778809,
        -0.3965781629085541,
        1.7949063777923584,
        -0.612210214138031,
        -1.2317137718200684,
        0.10692033916711807,
        0.051099736243486404,
        -3.708451747894287,
        -0.937242329120636,
        0.21153700351715088,
        1.0245976448059082,
        0.06897572427988052,
        0.45399948954582214,
        -0.39556246995925903,
        -0.32530391216278076,
        2.5647246837615967,
        -0.2843606770038605,
        -0.13994616270065308,
        2.6655936241149902,
        -1.2162927389144897,
        -1.5251295566558838,
        2.2999746799468994,
        -5.415057182312012,
        0.2917306125164032,
        -0.26948484778404236,
        0.47871047258377075,
        0.08945174515247345,
        -7.808061122894287,
        1.5333198308944702,
        -1.1365692615509033,
        1.6238746643066406,
        -0.4884471893310547,
        -0.04821620136499405,
        -1.5502020120620728,
        0.9732517600059509,
        2.642974615097046,
        0.9697452783584595,
        0.45267409086227417,
        -2.8010082244873047,
        -0.03182058036327362,
        1.2155542373657227,
        3.245973587036133,
        0.025240328162908554,
        -0.8060059547424316,
        -1.5776361227035522,
        -0.8568307757377625,
        0.06740440428256989,
        -0.39742159843444824,
        0.13692979514598846,
        -0.10369773954153061,
        -0.6459159851074219,
        -3.6829159259796143,
        0.8348277807235718,
        -0.2621895968914032,
        3.6749701499938965,
        -3.331454038619995,
        -3.938356399536133,
        -0.31502199172973633,
        1.0889040231704712,
        0.3251444101333618,
        -0.11381132155656815,
        -1.3738900423049927,
        1.8267275094985962,
        -0.7196156978607178,
        0.07457272708415985,
        0.30084896087646484,
        0.09069228172302246,
        -0.2442421019077301,
        -0.15829861164093018,
        -0.0055271633900702,
        -0.19762876629829407,
        -0.1393638551235199,
        -0.11108064651489258,
        0.15070036053657532,
        0.0643698051571846,
        0.03995094448328018,
        -0.2079903781414032,
        0.00930050853639841,
        -0.07488542795181274,
        -0.2361913025379181,
        0.19306369125843048,
        -0.13877354562282562,
        -0.03599733114242554,
        -0.0937347337603569,
        -0.06125527247786522,
        -0.077946238219738,
        -0.12240645289421082,
        -0.007150229532271624,
        -0.09612078964710236,
        -0.10264864563941956,
        -0.2710159420967102,
        -0.15745873749256134,
        -0.15799057483673096,
        0.028714006766676903,
        -0.029131801798939705,
        -0.23659460246562958,
        0.0587640143930912,
        0.006594012025743723,
        0.035597898066043854,
        -0.23154693841934204,
        -0.10012587904930115,
        -0.09966399520635605,
        0.1966169774532318,
        -0.2037373185157776,
        -0.02273746021091938,
        -0.12678977847099304,
        -0.208081915974617,
        -0.23584657907485962,
        -0.19215276837348938,
        -0.046642377972602844,
        0.05940834432840347,
        0.14127402007579803,
        0.016525940969586372,
        0.017357133328914642,
        -0.2920317053794861,
        -0.018989361822605133,
        -0.18875443935394287,
        -0.15912863612174988,
        -0.0944618210196495,
        -0.08453439921140671,
        0.14971588551998138,
        0.08351628482341766,
        -0.06808072328567505,
        -0.195064514875412,
        0.030690526589751244,
        -0.23288382589817047,
        -0.1353442668914795,
        -0.004733894020318985,
        -0.19592376053333282,
        0.003948902245610952,
        0.7281384468078613,
        -2.224717140197754,
        -0.4608366787433624,
        2.3701512813568115,
        -0.5793379545211792,
        -0.26322850584983826,
        -1.5593092441558838,
        0.5174362063407898,
        -1.3589836359024048,
        0.10929234325885773,
        0.45353221893310547,
        0.3951435089111328,
        0.06111568212509155,
        0.34740886092185974,
        -1.8408085107803345,
        -0.3018706142902374,
        1.6980806589126587,
        0.6453151106834412,
        0.0729854628443718,
        3.8668406009674072,
        -0.18147937953472137,
        -0.77654629945755,
        1.817457675933838,
        -0.2169446349143982,
        -0.47454530000686646,
        0.219778910279274,
        0.7458034157752991,
        -0.27675941586494446,
        -0.5092967748641968,
        1.1298569440841675,
        0.8164690136909485,
        -0.13865576684474945,
        0.18218855559825897,
        -0.2710014581680298,
        0.3358297646045685,
        1.1401615142822266,
        0.04796503856778145,
        -0.04234550520777702,
        -0.6811432242393494,
        -1.4209184646606445,
        0.5030691027641296,
        -1.1433026790618896,
        -0.4240916073322296,
        -0.4073760211467743,
        -0.8794291615486145,
        6.337616920471191,
        0.8122260570526123,
        0.5932186245918274,
        -0.43280309438705444,
        0.25040316581726074,
        1.6598073244094849,
        -0.37228596210479736,
        0.8180163502693176,
        0.6165418028831482,
        -0.2811130881309509,
        -0.6778577566146851,
        -0.09154390543699265,
        0.3039884567260742,
        -0.6894562840461731,
        -0.7338317036628723,
        0.0871739536523819,
        -0.4343310594558716,
        0.5613152980804443,
        -1.2754918336868286,
        0.5145028829574585,
        0.05091467499732971,
        -0.24011847376823425,
        -3.0769755840301514,
        1.539642095565796,
        0.5169646739959717,
        0.17082388699054718,
        -0.6708987951278687,
        -0.27199333906173706,
        -0.29892411828041077,
        -0.2468000203371048,
        -0.33263054490089417,
        0.24535369873046875,
        1.9128762483596802,
        -1.3166574239730835,
        -0.375180184841156,
        -3.486142158508301,
        0.29251614212989807,
        1.1408430337905884,
        1.2893024682998657,
        -0.3782579004764557,
        0.18786413967609406,
        -0.08836309611797333,
        -1.1891365051269531,
        0.6867753267288208,
        -0.27984556555747986,
        -0.7541037797927856,
        2.492908239364624,
        0.5886954665184021,
        -2.7245376110076904,
        0.637079119682312,
        -0.48847371339797974,
        -2.138195276260376,
        -1.5282423496246338,
        -0.09650294482707977,
        -1.021988868713379,
        -0.15849526226520538,
        -0.018409719690680504,
        -4.6153717041015625,
        1.0701314210891724,
        0.7580817937850952,
        -0.26471957564353943,
        0.7144550681114197,
        -0.24869391322135925,
        -0.25929298996925354,
        1.6294848918914795,
        0.18251056969165802,
        -0.8326648473739624,
        -0.3791652321815491,
        0.3976573348045349,
        1.3530750274658203,
        2.058175802230835,
        -0.2630661725997925,
        0.22406885027885437,
        -0.011417217552661896,
        -0.49782896041870117,
        -0.7943611145019531,
        0.17294758558273315,
        -0.15475180745124817,
        -0.5925635099411011,
        0.1977214217185974,
        -1.5005393028259277,
        -0.5977690815925598,
        -0.6979646682739258,
        1.5853430032730103,
        -0.03589340299367905,
        -0.19168531894683838,
        0.5121152400970459,
        -0.5504259467124939,
        -0.8413076400756836,
        -0.17199276387691498,
        -0.04518416151404381,
        -0.21257713437080383,
        -0.2665156424045563,
        -0.47563499212265015,
        -0.07799753546714783,
        -2.918844223022461,
        -3.371877431869507,
        -0.6723955869674683,
        -0.10926049947738647,
        -1.8672254085540771,
        -0.21621206402778625,
        0.7768861651420593,
        2.5916550159454346,
        -0.8838933706283569,
        -0.08097471296787262,
        -1.180478572845459,
        -3.631443500518799,
        -0.2911529541015625,
        0.21179355680942535,
        0.2240133434534073,
        -0.3868259787559509,
        0.5399158596992493,
        0.26594725251197815,
        -0.17493905127048492,
        1.2780954837799072,
        -0.2856070399284363,
        -0.2667790651321411,
        0.6494064927101135,
        0.29899269342422485,
        -0.1970822662115097,
        -0.28142908215522766,
        0.07339586317539215,
        -0.05877358838915825,
        2.2428503036499023,
        0.3616075813770294,
        -0.41558194160461426,
        0.8985315561294556,
        -1.1249076128005981,
        -7.856550693511963,
        1.5434027910232544,
        -0.14923804998397827,
        3.2153828144073486,
        -2.312960624694824,
        1.4383111000061035,
        0.06219231337308884,
        -5.010373592376709,
        0.5510695576667786,
        -1.3788431882858276,
        0.3084982931613922,
        -1.1658132076263428,
        -3.3979806900024414,
        -0.06287023425102234,
        -0.3185049593448639,
        -0.3937104642391205,
        1.0201680660247803,
        -0.7980544567108154,
        -0.10612918436527252,
        1.7861511707305908,
        0.21739916503429413,
        0.520495593547821,
        0.8518034219741821,
        1.9367620944976807,
        1.8759366273880005,
        0.6567922234535217,
        2.8530073165893555,
        0.8419831991195679,
        0.06540478765964508,
        0.25031134486198425,
        1.8947324752807617,
        1.1787934303283691,
        1.7744053602218628,
        -0.7134865522384644,
        -1.4408466815948486,
        0.5057840943336487,
        3.5460309982299805,
        1.2062373161315918,
        2.0833346843719482,
        1.0571051836013794,
        0.6912216544151306,
        1.7320677042007446,
        -3.459739923477173,
        -1.1528681516647339,
        -2.131288766860962,
        -1.258967399597168,
        0.8597977161407471,
        3.9260566234588623,
        -0.9706319570541382,
        -0.2968124747276306,
        -2.0426270961761475,
        -1.62321138381958,
        1.2472281455993652,
        -0.5131637454032898,
        -1.4554744958877563,
        -0.5291564464569092,
        0.6369264125823975,
        1.3484442234039307,
        0.7940313816070557,
        -0.6220465302467346,
        -1.1656641960144043,
        0.7872782945632935,
        -1.9542242288589478,
        0.8733862042427063,
        0.913286566734314,
        0.1757088601589203,
        3.004836320877075,
        -3.7714803218841553,
        0.5996317267417908,
        -2.2153165340423584,
        -0.7676490545272827,
        0.5502720475196838,
        -0.3917257785797119,
        0.7593615651130676,
        1.4014170169830322,
        0.6375654935836792,
        -0.1815350204706192,
        -0.9954759478569031,
        2.7189106941223145,
        0.8039724230766296,
        1.87454092502594,
        0.0707634910941124,
        -0.2864344120025635,
        0.8130542635917664,
        -0.20580846071243286,
        -2.3898375034332275,
        2.9039194583892822,
        1.787010669708252,
        -4.6492156982421875,
        -0.12023428082466125,
        -0.34891000390052795,
        -0.042408786714076996,
        -1.4596405029296875,
        -3.5661919116973877,
        -2.627004623413086,
        0.2700124979019165,
        0.10059267282485962,
        -0.05311533436179161,
        -0.32777121663093567,
        -0.47117435932159424,
        1.6371601819992065,
        -1.7364883422851562,
        2.543471574783325,
        -1.324604868888855,
        0.6082440614700317,
        3.2278153896331787,
        -1.0796611309051514,
        1.0259208679199219,
        1.4475306272506714,
        -4.575523853302002,
        -1.8756974935531616,
        1.177979588508606,
        0.17162135243415833,
        1.7277196645736694,
        -2.9420177936553955,
        -1.1473071575164795,
        -6.614285945892334,
        -1.6168553829193115,
        -0.9845158457756042,
        0.5499107241630554,
        0.20140233635902405,
        -2.3741371631622314,
        -2.0870351791381836,
        0.03605429083108902,
        0.7459253668785095,
        -5.467728614807129,
        -0.3623823821544647,
        -0.18209968507289886,
        1.386254072189331,
        0.274115651845932,
        2.0472731590270996,
        -0.10798977315425873,
        0.1583363115787506,
        3.6080825328826904,
        -0.03272747993469238,
        -2.3192429542541504,
        1.1654276847839355,
        -3.2258899211883545,
        -0.4918113052845001,
        -0.4339604079723358,
        0.33201274275779724,
        0.17445267736911774,
        -0.6514294743537903,
        0.9196093082427979,
        1.8423138856887817,
        -0.7112441062927246,
        -1.4909613132476807,
        -2.1099064350128174,
        0.15802839398384094,
        0.49871620535850525,
        -0.485730916261673,
        -1.4212584495544434,
        -0.14541040360927582,
        -0.3950693905353546,
        -0.9020158648490906,
        0.8391517400741577,
        -1.1606879234313965,
        0.5603135228157043,
        -2.3865299224853516,
        -2.4036521911621094,
        -1.820957064628601,
        -0.47428861260414124,
        -0.11256265640258789,
        0.10330179333686829,
        7.040324687957764,
        -0.15330010652542114,
        1.3877965211868286,
        0.18505245447158813,
        0.3629908263683319,
        0.08693892508745193,
        0.17066970467567444,
        0.5639566779136658,
        -0.3585430979728699,
        -11.036792755126953,
        -0.6796230673789978,
        -0.9199496507644653,
        -1.161599040031433,
        -2.6549978256225586,
        -0.029603926464915276,
        -1.1226472854614258,
        -0.8801226615905762,
        -6.148287296295166,
        0.5022393465042114,
        0.08336430788040161,
        -0.2745959758758545,
        2.9068877696990967,
        0.14746975898742676,
        -0.7589544653892517,
        0.9036670923233032,
        -1.3251861333847046,
        0.20027410984039307,
        0.3236699104309082,
        0.08280034363269806,
        0.6054291129112244,
        -0.32575297355651855,
        0.29377561807632446,
        -1.7349915504455566,
        -1.578584909439087,
        0.16509515047073364,
        -0.4659142792224884,
        -1.21892249584198,
        -2.8289988040924072,
        -0.5366921424865723,
        1.4486004114151,
        0.6216015815734863,
        -0.3776780962944031,
        0.27552735805511475,
        -0.8788127899169922,
        0.46725139021873474,
        -0.27346155047416687,
        0.7995678782463074,
        -1.706510066986084,
        0.2429855614900589,
        -0.4026469886302948,
        -4.52282190322876,
        -1.144647479057312,
        0.31882718205451965,
        0.24468308687210083,
        -2.072622060775757,
        0.6840565800666809,
        1.261644959449768,
        -1.5774863958358765,
        -0.9828364253044128,
        -0.4513668417930603,
        1.0014424324035645,
        -0.40990832448005676,
        -0.539321780204773,
        -1.6390994787216187,
        1.117013692855835,
        0.3602251708507538,
        0.2437741458415985,
        0.639672577381134,
        0.644786536693573,
        0.45394253730773926,
        -5.083069324493408,
        -0.21098390221595764,
        0.5330870151519775,
        0.16312415897846222,
        0.8775033950805664,
        -1.3006948232650757,
        -0.20698922872543335,
        -0.4510791599750519,
        1.0157463550567627,
        -0.3101712465286255,
        0.7110662460327148,
        0.2570648491382599,
        -0.5048041939735413,
        0.6557340025901794,
        -0.25834155082702637,
        0.0966067984700203,
        0.17345330119132996,
        -1.535004734992981,
        0.2069084793329239,
        0.7247012257575989,
        -0.8825806379318237,
        -0.18661795556545258,
        -6.879247188568115,
        0.20875120162963867,
        0.01652688905596733,
        2.3284528255462646,
        -1.117747187614441,
        -2.6046900749206543,
        -0.4517149329185486,
        -0.12559059262275696,
        0.18879403173923492,
        0.24654558300971985,
        0.6576197147369385,
        0.6791512966156006,
        0.004323020111769438,
        0.6058878302574158,
        0.9829315543174744,
        -2.7621145248413086,
        2.5107386112213135,
        0.33546650409698486,
        0.48511505126953125,
        1.8596305847167969,
        1.1381176710128784,
        -0.6260343790054321,
        0.8719928860664368,
        -4.323372840881348,
        0.002602054737508297,
        -0.7057429552078247,
        -0.7792738080024719,
        0.9514780640602112,
        -6.274074077606201,
        0.23440274596214294,
        -0.37214475870132446,
        -6.072274684906006,
        8.322346687316895,
        0.3596671521663666,
        0.07264519482851028,
        1.866756558418274,
        -2.4074034690856934,
        1.6485618352890015,
        -0.2619919180870056,
        -1.568825602531433,
        0.030313758179545403,
        -0.13987652957439423,
        0.7641250491142273,
        -0.49588316679000854,
        -0.700579047203064,
        -7.7212910652160645,
        -0.0822310745716095,
        0.1211485043168068,
        -0.2672916352748871,
        -0.9596607089042664,
        0.44822102785110474,
        -0.12196830660104752,
        -1.827743411064148,
        -0.9958951473236084,
        0.30510714650154114,
        -0.03738357499241829,
        -0.7059997320175171,
        -0.8587003350257874,
        -0.564233124256134,
        2.060314416885376,
        -0.4003344178199768,
        0.6886105537414551,
        -0.2562418580055237,
        -0.4218628704547882,
        -0.08987098187208176,
        0.5831841826438904,
        -0.5920810699462891,
        -0.0037824485916644335,
        -0.5575417280197144,
        0.8804837465286255,
        -1.079902172088623,
        0.10728350281715393,
        -0.8203413486480713,
        -6.4496893882751465,
        -3.046189308166504,
        2.0708529949188232,
        -0.6738938093185425,
        -0.6378951668739319,
        -0.4652612507343292,
        0.24824140965938568,
        -0.2117675542831421,
        -1.0159674882888794,
        1.0372027158737183,
        -1.7839701175689697,
        0.43857619166374207,
        -0.17847807705402374,
        -1.9293148517608643,
        -0.2139173448085785,
        0.07775335013866425,
        0.2940363585948944,
        -0.18930935859680176,
        0.33025434613227844,
        0.5808967351913452,
        -2.0495188236236572,
        0.49345311522483826,
        0.4267495572566986,
        -0.6618219017982483,
        -0.16452518105506897,
        -2.9167230129241943,
        0.7532849311828613,
        0.44995594024658203,
        0.48135411739349365,
        0.6176773905754089,
        0.2971649169921875,
        0.9134419560432434,
        -0.034225717186927795,
        2.005972146987915,
        -0.1251491904258728,
        -0.056681569665670395,
        0.29553499817848206,
        -0.2598629593849182,
        -1.2469333410263062,
        -0.5039545297622681,
        -0.3741767704486847,
        -1.7518937587738037,
        -0.14430147409439087,
        0.29604005813598633,
        0.06510050594806671,
        -2.569701910018921,
        0.09833605587482452,
        -0.5417945981025696,
        -0.5052273273468018,
        -0.07635392248630524,
        1.3689507246017456,
        -0.2988937497138977,
        0.3844994008541107,
        -0.26915138959884644,
        0.24387575685977936,
        -4.449644565582275,
        -2.6846446990966797,
        -0.2050912231206894,
        -5.421823978424072,
        0.8737257122993469,
        -1.0848803520202637,
        -0.3799271881580353,
        -2.2631564140319824,
        0.39519327878952026,
        -0.04663557559251785,
        0.3763595223426819,
        -1.575711965560913,
        -1.6818053722381592,
        -0.3184235692024231,
        0.13000507652759552,
        0.5885010957717896,
        -3.475926399230957,
        -0.03510761633515358,
        0.6684298515319824,
        -1.299425482749939,
        -1.4734947681427002,
        -0.19172847270965576,
        -0.07789880782365799,
        2.1788992881774902,
        1.8829513788223267,
        0.40974336862564087,
        1.5140701532363892,
        -1.5810309648513794,
        -5.383292198181152,
        0.1602717936038971,
        -2.102670431137085,
        0.5351712703704834,
        -1.777503490447998,
        -1.747443437576294,
        -0.06919670850038528,
        1.6632975339889526,
        0.3469198942184448,
        -0.4381522536277771,
        2.616943359375,
        -1.276658058166504,
        -0.976276159286499,
        2.7841906547546387,
        -0.03494954854249954,
        1.2902880907058716,
        -0.7546877264976501,
        -0.4842398762702942,
        -1.4263561964035034,
        0.5610247850418091,
        -0.0963020771741867,
        2.248070001602173,
        -0.594295859336853,
        -1.8847771883010864,
        -0.9872331023216248,
        -2.0116004943847656,
        -0.3483492136001587,
        -1.3708422183990479,
        0.7708507776260376,
        1.9181525707244873,
        1.6101999282836914,
        -0.8408108353614807,
        -0.8375033140182495,
        -0.6365751028060913,
        1.7363523244857788,
        -1.8580278158187866,
        -2.169632911682129,
        0.3848053216934204,
        1.7824047803878784,
        -0.21859745681285858,
        -0.22155635058879852,
        0.2995350658893585,
        1.0977516174316406,
        -0.6734738945960999,
        -0.368772029876709,
        0.44293147325515747,
        0.4502713680267334,
        -1.042423129081726,
        -0.2731872498989105,
        1.4216833114624023,
        1.4013733863830566,
        1.3951311111450195,
        0.6868599057197571,
        1.1923129558563232,
        -1.500905990600586,
        -0.7659296989440918,
        -0.05747170001268387,
        -0.6989061236381531,
        1.7157351970672607,
        -1.179538369178772,
        0.0957416445016861,
        0.6559842228889465,
        0.5887000560760498,
        -0.6510960459709167,
        0.07308322191238403,
        -0.21281902492046356,
        -0.3359265625476837,
        -0.01534221787005663,
        -3.8486268520355225,
        0.17571918666362762,
        -2.8341174125671387,
        -0.5970981121063232,
        2.8500494956970215,
        -0.5990050435066223,
        -0.7789435982704163,
        -0.473604291677475,
        0.6950685977935791,
        -0.6500471830368042,
        -4.79789924621582,
        0.3026253283023834,
        0.6654413342475891,
        -0.008472122251987457,
        0.39013028144836426,
        -1.2318626642227173,
        0.09937211871147156,
        1.177100658416748,
        -0.2856338620185852,
        -0.5537123680114746,
        0.9767955541610718,
        -0.061763398349285126,
        -0.7744309902191162,
        0.5474891662597656,
        -2.170271396636963,
        -2.0214755535125732,
        0.28642311692237854,
        -4.291090965270996,
        0.7889363765716553,
        0.47740811109542847,
        -0.5270863175392151,
        0.526182234287262,
        4.410868167877197,
        -0.21974660456180573,
        0.7244546413421631,
        0.23468992114067078,
        0.1978403776884079,
        0.4065430462360382,
        -0.17460621893405914,
        -0.06437620520591736,
        -0.41142264008522034,
        0.45418015122413635,
        1.1722157001495361,
        -0.33326631784439087,
        -0.4303266108036041,
        0.24958378076553345,
        0.5788553357124329,
        -2.487318992614746,
        -2.733673572540283,
        0.04574873298406601,
        -0.07048756629228592,
        -2.310811758041382,
        0.09518963098526001,
        -7.1087117195129395,
        -0.6990842819213867,
        -0.1450158953666687,
        -1.0231391191482544,
        0.9003071784973145,
        -3.0237836837768555,
        -1.4411126375198364,
        -1.2148422002792358,
        -1.9521867036819458,
        1.5864871740341187,
        -1.5425934791564941,
        8.126063346862793,
        0.6776890754699707,
        -0.12138811498880386,
        -1.235572099685669,
        0.8994900584220886,
        -2.01350998878479,
        -1.0024728775024414,
        0.5977879762649536,
        -3.6079540252685547,
        -0.4323352873325348,
        -0.2955194115638733,
        0.019032511860132217,
        -1.330880045890808,
        0.6130193471908569,
        -0.4487566649913788,
        1.0614209175109863,
        0.3441244959831238,
        -0.6874414682388306,
        0.1703847050666809,
        0.5187277793884277,
        0.4924682676792145,
        -0.27377834916114807,
        0.7593628764152527,
        0.611462414264679,
        -1.8086227178573608,
        -0.13808521628379822,
        0.9271606802940369,
        -0.8990653157234192,
        -3.6419684886932373,
        0.1700877845287323,
        -0.5521301627159119,
        0.7824382781982422,
        3.643228054046631,
        0.08937583863735199,
        -0.37929269671440125,
        -0.19627490639686584,
        0.20147794485092163,
        9.263335227966309,
        -4.174722194671631,
        -0.028787724673748016,
        -2.373044729232788,
        0.10846471786499023,
        0.5359144806861877,
        -1.050693154335022,
        -2.098362922668457,
        0.9843460321426392,
        0.5964527130126953,
        0.854000985622406,
        -9.544543266296387,
        -0.40717703104019165,
        0.93047034740448,
        2.0475401878356934,
        -0.6327164769172668,
        -0.2850750982761383,
        0.6636112332344055,
        0.8513751029968262,
        0.77914959192276,
        -1.1039962768554688,
        -4.60403299331665,
        1.296155571937561,
        -0.7879117131233215,
        0.4816444218158722,
        -1.09073007106781,
        -2.632786512374878,
        2.3831450939178467,
        -3.2824323177337646,
        0.026445109397172928,
        -0.1863774210214615,
        2.5665223598480225,
        0.04441424459218979,
        -0.10746394842863083,
        -0.7123941779136658,
        0.9587957262992859,
        0.16735641658306122,
        -0.45475101470947266,
        0.5768383741378784,
        0.5070846080780029,
        0.6376298666000366,
        2.030794858932495,
        0.34239402413368225,
        -1.5243275165557861,
        0.4623927175998688,
        -0.3397829234600067,
        -0.5581967830657959,
        1.1791092157363892,
        -0.3260428309440613,
        0.2513880431652069,
        -2.3667688369750977,
        0.23348304629325867,
        1.4242191314697266,
        2.8762683868408203,
        0.128791943192482,
        0.46295633912086487,
        1.3501417636871338,
        -1.4989902973175049,
        1.2603263854980469,
        5.126041412353516,
        -1.7345582246780396,
        0.42488107085227966,
        -1.1692297458648682,
        -0.6930859684944153,
        3.6175384521484375,
        -0.7030162215232849,
        -0.49208971858024597,
        -1.4910753965377808,
        0.3401825428009033,
        -1.174461007118225,
        0.06531975418329239,
        -1.1097737550735474,
        1.0688836574554443,
        1.6017992496490479,
        -0.9873523712158203,
        -0.0909569263458252,
        0.4746457636356354,
        0.679894208908081,
        2.316645622253418,
        -0.2742254137992859,
        -0.7221418023109436,
        -0.000605156586971134,
        -0.6426327228546143,
        -0.5999066233634949,
        0.6148332953453064,
        -4.030357837677002,
        0.6433214545249939,
        0.39428433775901794,
        -0.4625534415245056,
        -2.2165603637695312,
        -0.09077250212430954,
        -2.3240344524383545,
        -0.9660391807556152,
        -0.3983188271522522,
        -3.010289192199707,
        -1.6318349838256836,
        -1.2791486978530884,
        -0.35725533962249756,
        -0.6964886784553528,
        0.9912042617797852,
        -1.3643041849136353,
        0.25737977027893066,
        0.4231164753437042,
        0.24199624359607697,
        -0.2253274768590927,
        1.016705870628357,
        -1.9166055917739868,
        -0.09279786795377731,
        0.5027481317520142,
        -0.5419129133224487,
        -2.4344725608825684,
        0.6719925403594971,
        -1.1887708902359009,
        1.878739356994629,
        0.23648500442504883,
        -4.705739974975586,
        5.222609519958496,
        2.0134096145629883,
        2.717273473739624,
        -0.21762880682945251,
        0.5519776940345764,
        0.09038794785737991,
        -0.38101881742477417,
        -1.7362494468688965,
        -0.661093533039093,
        0.13924314081668854,
        -0.9651675820350647,
        0.43984487652778625,
        -3.1778042316436768,
        -0.6063899397850037,
        -1.2400811910629272,
        0.014387876726686954,
        -0.3029312491416931,
        -1.9895014762878418,
        0.6610338687896729,
        1.0033395290374756,
        0.1566818207502365,
        0.5008395910263062,
        -4.182553768157959,
        -0.06683241575956345,
        0.3664793372154236,
        1.2099324464797974,
        1.1845898628234863,
        -2.455946445465088,
        -1.6935282945632935,
        -0.0264272503554821,
        -2.3453075885772705,
        -0.8293605446815491,
        -0.6185461282730103,
        1.7501604557037354,
        0.4166494607925415,
        -1.2361236810684204,
        -0.29265522956848145,
        2.4708974361419678,
        -0.7931568622589111,
        7.667654514312744,
        -0.6990934610366821,
        0.14796990156173706,
        -1.0340960025787354,
        1.793398380279541,
        0.07064444571733475,
        0.209249347448349,
        2.6849398612976074,
        -0.12765401601791382,
        0.9440596103668213,
        0.4907216429710388,
        -0.47787991166114807,
        -1.5617295503616333,
        -1.9456965923309326,
        0.6962579488754272,
        0.4298193156719208,
        0.4220297634601593,
        -1.0671744346618652,
        -0.14630450308322906,
        0.21762217581272125,
        0.6761041283607483,
        -3.5186352729797363,
        0.006111258175224066,
        -0.6661026477813721,
        0.05140140652656555,
        4.729615211486816,
        3.39631724357605,
        -0.36053693294525146,
        -1.437513828277588,
        0.8109522461891174,
        1.0336213111877441,
        -0.8157558441162109,
        0.10933604836463928,
        0.17915555834770203,
        1.3844245672225952,
        0.30638787150382996,
        -0.21260011196136475,
        1.0134211778640747,
        -0.6550636291503906,
        0.8121455907821655,
        -7.6674299240112305,
        -2.9538321495056152,
        0.5217362642288208,
        2.405245304107666,
        -0.8235422372817993,
        -1.079025149345398,
        2.507608652114868,
        0.8627218008041382,
        -0.4601028561592102,
        -0.31293514370918274,
        0.3675868511199951,
        -2.7394673824310303,
        0.6252047419548035,
        0.08825234323740005,
        0.35104766488075256,
        -0.8968808650970459,
        0.9353155493736267,
        0.4651066064834595,
        2.9210309982299805,
        0.05174991115927696,
        0.11140628159046173,
        -0.49267783761024475,
        -0.0831252932548523,
        0.3957618176937103,
        4.3797736167907715,
        -0.9858466386795044,
        -0.5092489719390869,
        2.7987070083618164,
        1.091232180595398,
        -2.531931161880493,
        0.2669277787208557,
        -2.152704954147339,
        -2.1071619987487793,
        0.17693044245243073,
        -0.9414936304092407,
        -1.380794882774353,
        -0.30132219195365906,
        -0.46080610156059265,
        -0.4924989342689514,
        0.36942121386528015,
        -0.1465020626783371,
        0.2069573551416397,
        -0.5617240071296692,
        -0.7380796074867249,
        0.6356824040412903,
        -0.14545270800590515,
        -0.04797545447945595,
        -1.058093786239624,
        -0.667248547077179,
        1.1310538053512573,
        -2.983158826828003,
        -0.7536150813102722,
        0.37818434834480286,
        0.034093622118234634,
        1.207255482673645,
        -1.406909465789795,
        1.217628002166748,
        -0.8169311881065369,
        -0.774300217628479,
        0.19094502925872803,
        -0.3755201995372772,
        -0.2931770980358124,
        0.5960426330566406,
        1.5300259590148926,
        -0.7476086616516113,
        -0.10235818475484848,
        1.6294753551483154,
        2.7178943157196045,
        -1.6158440113067627,
        -0.9243444800376892,
        0.8400677442550659,
        0.24727298319339752,
        2.430851459503174,
        0.21111921966075897,
        0.17744332551956177,
        1.1498901844024658,
        0.2787809669971466,
        -0.8569754362106323,
        0.6137737035751343,
        0.45357510447502136,
        -0.5681262016296387,
        -0.057736143469810486,
        -0.5310447812080383,
        0.297728568315506,
        0.7509307861328125,
        -0.22243991494178772,
        5.878841400146484,
        -10.393872261047363,
        -0.9888762831687927,
        0.4322481155395508,
        -0.07287856936454773,
        0.7253854274749756,
        2.5446059703826904,
        1.7370349168777466,
        1.7723946571350098,
        -0.3665411174297333,
        0.5803409218788147,
        0.6042706370353699,
        -0.34962528944015503,
        -0.24594727158546448,
        -0.7085413932800293,
        -1.536625862121582,
        0.2602875828742981,
        -1.0016990900039673,
        -0.5433464050292969,
        -1.92299485206604,
        -0.4572122097015381,
        -3.922109603881836,
        -1.0244284868240356,
        -4.911334991455078,
        0.7952588796615601,
        -0.42189615964889526,
        -0.6258025169372559,
        -2.1196694374084473,
        0.05723513662815094,
        0.457022488117218,
        0.7090650796890259,
        -0.06961174309253693,
        0.22895674407482147,
        0.5276697874069214,
        -0.7860426902770996,
        0.1433364897966385,
        0.34866493940353394,
        0.01902597025036812,
        -1.2219740152359009,
        -1.0110509395599365,
        -0.26585111021995544,
        0.8842733502388,
        -0.3031918704509735,
        -10.18027400970459,
        -1.121018886566162,
        2.695538282394409,
        2.121748447418213,
        0.44959521293640137,
        -0.04375024884939194,
        0.632632851600647,
        0.8504500985145569,
        -0.2060457319021225,
        0.265556663274765,
        1.5267292261123657,
        1.3457880020141602,
        -0.3313966393470764,
        1.4136073589324951,
        -0.648108959197998,
        0.3523676097393036,
        -3.312540292739868,
        0.8626258969306946,
        -3.7348809242248535,
        1.888260841369629,
        0.07078184932470322,
        -0.705938994884491,
        0.5634264349937439,
        0.16311189532279968,
        -0.5160794854164124,
        0.03174717351794243,
        2.8576395511627197,
        -1.9157159328460693,
        1.0767508745193481,
        1.512498140335083,
        0.023903952911496162,
        -0.7598700523376465,
        2.875270366668701,
        0.2561323940753937,
        0.01491113193333149,
        0.1587180346250534,
        -0.31453296542167664,
        0.4662102460861206,
        1.0645158290863037,
        0.08532626926898956,
        -0.14642293751239777,
        -0.35234302282333374,
        -0.7643327116966248,
        -0.2720046937465668,
        -2.214055061340332,
        -0.26102563738822937,
        0.06756492704153061,
        0.4299980700016022,
        0.33450961112976074,
        0.11797469854354858,
        2.7215170860290527,
        -0.5173233151435852,
        -0.23337487876415253,
        -0.10096730291843414,
        -0.6027807593345642,
        0.46357035636901855,
        1.094375491142273,
        2.3646435737609863,
        0.24766245484352112,
        0.27792948484420776,
        1.632972002029419,
        -0.6523052453994751,
        1.1970044374465942,
        0.19885224103927612,
        0.2593761086463928,
        0.4165560007095337,
        -1.1907906532287598,
        1.3270390033721924,
        -0.4897047281265259,
        -0.6648250818252563,
        0.1841019093990326,
        -0.13280493021011353,
        0.010526283644139767,
        -4.462804317474365,
        1.653451919555664,
        -2.2399351596832275,
        0.17412060499191284,
        3.2812864780426025,
        2.03092885017395,
        0.9052385091781616,
        -0.3248061239719391,
        2.410013437271118,
        0.8471762537956238,
        0.015648117288947105,
        -2.7746872901916504,
        1.0115034580230713,
        0.19567948579788208,
        1.2509080171585083,
        -1.2167240381240845,
        -0.11346311122179031,
        0.8678452372550964,
        3.807436227798462,
        2.768559694290161,
        0.6309617161750793,
        0.18098925054073334,
        -0.12926079332828522,
        0.17518235743045807,
        -0.17795594036579132,
        -1.3372938632965088,
        -3.394801378250122,
        -1.5831763744354248,
        0.8750906586647034,
        -0.019792350009083748,
        -0.1790340542793274,
        0.2077130377292633,
        -1.29257071018219,
        -1.7565385103225708,
        2.2126264572143555,
        -0.5849544405937195,
        0.7854346632957458,
        -0.6572340130805969,
        -0.8178573250770569,
        -1.1905204057693481,
        2.6241681575775146,
        -0.693975031375885,
        0.11931974440813065,
        0.4326898753643036,
        -0.2187068909406662,
        -1.0286729335784912,
        5.336296081542969,
        -0.008157522417604923,
        -0.6312418580055237,
        0.34967488050460815,
        0.044829849153757095,
        3.9339406490325928,
        0.08601969480514526,
        2.996061086654663,
        1.6308344602584839,
        -0.24422386288642883,
        0.6841591596603394,
        2.0652220249176025,
        -0.23511023819446564,
        -0.699456512928009,
        0.5727947354316711,
        0.5441250205039978,
        0.032292645424604416,
        0.21474145352840424,
        0.5496858954429626,
        -1.2276570796966553,
        1.3084484338760376,
        -0.023331308737397194,
        -4.065047740936279,
        -1.138490915298462,
        -0.43829241394996643,
        -1.0344109535217285,
        1.1977263689041138,
        -4.181755065917969,
        1.361038327217102,
        -0.641001284122467,
        -1.6474378108978271,
        0.4368268549442291,
        -0.5897137522697449,
        -0.8348870873451233,
        -0.15876269340515137,
        -2.302668809890747,
        -1.4767078161239624,
        0.9958387017250061,
        0.5946964025497437,
        0.5865716338157654,
        -1.1873810291290283,
        -0.5744423270225525,
        -0.5565035939216614,
        0.16376137733459473,
        -1.3295981884002686,
        -0.6176255941390991,
        1.3418673276901245,
        -0.35961681604385376,
        -1.2027223110198975,
        2.421380043029785,
        0.0321977362036705,
        -0.8615212440490723,
        -0.3135903775691986,
        0.9606027603149414,
        -2.064415454864502,
        -0.26047569513320923,
        0.8540202379226685,
        2.5118520259857178,
        1.336740493774414,
        -1.0334477424621582,
        -1.4737629890441895,
        -0.3966701030731201,
        -0.7879994511604309,
        -0.6439965963363647,
        -0.3122911751270294,
        -0.38128772377967834,
        -3.0072989463806152,
        -0.5615463256835938,
        -0.26234978437423706,
        0.37304165959358215,
        -0.18115843832492828,
        -1.6553691625595093,
        0.982829749584198,
        0.5561080574989319,
        -0.19241853058338165,
        2.8681745529174805,
        -0.08511009812355042,
        0.29327741265296936,
        -0.4041607975959778,
        -0.018504364416003227,
        0.012792672961950302,
        -0.2772883176803589,
        -0.528779149055481,
        3.032041311264038,
        0.05347053334116936,
        -0.7943317890167236,
        0.4077762961387634,
        -0.5951982140541077,
        0.812303900718689,
        0.8335204720497131,
        0.34315982460975647,
        1.5859992504119873,
        -1.0847605466842651,
        1.3848598003387451,
        2.753603219985962,
        -2.6242642402648926,
        3.3271775245666504,
        0.1243203654885292,
        0.3803316354751587,
        1.1963728666305542,
        1.0254048109054565,
        -0.6944971680641174,
        1.6393115520477295,
        0.27675744891166687,
        0.417000949382782,
        1.360243320465088,
        -0.8975182175636292,
        -1.120601773262024,
        -1.0815309286117554,
        -0.04198223724961281,
        0.6491732597351074,
        0.4482606053352356,
        1.1663020849227905,
        -1.2460695505142212,
        -1.581791639328003,
        -5.084152698516846,
        0.8377828598022461,
        0.012252496555447578,
        0.8876257538795471,
        0.5432680249214172,
        -5.7309980392456055,
        2.0401597023010254,
        1.8042203187942505,
        0.6945357322692871,
        -0.22056075930595398,
        0.2185261845588684,
        -0.2999284267425537,
        0.6492077708244324,
        1.5232748985290527,
        -0.316332072019577,
        0.4682786166667938,
        -2.249307870864868,
        -1.8149906396865845,
        2.1407954692840576,
        -0.5818303823471069,
        1.1997339725494385,
        0.5797921419143677,
        -4.6904754638671875,
        1.4240028858184814,
        0.8100849390029907,
        2.3125216960906982,
        -0.7924336791038513,
        2.3530590534210205,
        0.9083133339881897,
        -1.3596885204315186,
        0.9091112613677979,
        1.408556580543518,
        0.37716585397720337,
        -0.02754288539290428,
        -1.9938786029815674,
        0.1573958694934845,
        0.4510772228240967,
        1.1732202768325806,
        -0.2893732488155365,
        -0.6448438763618469,
        1.0991237163543701,
        2.4870779514312744,
        0.3940836787223816,
        0.027559330686926842,
        0.5370522737503052,
        5.479870796203613,
        -0.42571625113487244,
        -0.21788321435451508,
        -0.7257364392280579,
        -1.7988001108169556,
        0.6343897581100464,
        1.448509931564331,
        2.2878122329711914,
        1.539199948310852,
        -1.4557876586914062,
        -0.052400656044483185,
        0.21263615787029266,
        -1.4621840715408325,
        -0.8417462706565857,
        1.6122019290924072,
        3.108229160308838,
        0.2173774391412735,
        0.17511259019374847,
        -1.0801588296890259,
        -0.3677792251110077,
        -0.5932765007019043,
        -0.03220441937446594,
        0.20000214874744415,
        -1.4268368482589722,
        0.8728432059288025,
        2.3819429874420166,
        2.767517328262329,
        0.46269336342811584,
        -0.05943434685468674,
        -1.0089138746261597,
        0.12606965005397797,
        -0.5060126781463623,
        2.394953489303589,
        0.2043723613023758,
        1.0197253227233887,
        -0.6894769668579102,
        -1.1900643110275269,
        -0.9713823795318604,
        -0.2970956265926361,
        0.9915425777435303,
        0.7805697321891785,
        -4.280900478363037,
        -0.9374066591262817,
        1.4666333198547363,
        -0.04896876588463783,
        0.03227078169584274,
        -0.671962559223175,
        0.3118913173675537,
        0.8878990411758423,
        -1.7162829637527466,
        1.219520092010498,
        -7.47189998626709,
        0.6900203227996826,
        -0.3648993968963623,
        2.1908960342407227,
        -0.99528968334198,
        -1.1562937498092651,
        -0.27470695972442627,
        -0.12878398597240448,
        -0.32911762595176697,
        -0.7586345672607422,
        0.0928201824426651,
        2.561241388320923,
        0.6302456259727478,
        -5.37570858001709,
        -0.27425092458724976,
        0.2125907987356186,
        -2.1891839504241943,
        2.2487852573394775,
        -0.46840059757232666,
        -0.13720212876796722,
        -0.9398095011711121,
        0.3342921733856201,
        -0.7720205187797546,
        1.4465144872665405,
        -3.4614086151123047,
        -0.8053413033485413,
        0.3392691910266876,
        -0.1715957075357437,
        0.0664886087179184,
        -1.2163715362548828,
        -0.7780601978302002,
        -1.9297423362731934,
        -1.86872136592865,
        0.38674116134643555,
        -5.302403450012207,
